-0.0171428571428571400000000000000,0.01857142857142857200000000000000,0.02785714285714285800000000000000,-0.0171428571428571400000000000000,0.03571428571428571200000000000000,-0.01428571428571428700000000000000,-0.0342857142857142800000000000000,-0.0321428571428571400000000000000,-0.02285714285714285700000000000000,0.002857142857142856700000000000000,0.0007142857142857159100000000000000,-0.02857142857142857100000000000000,0.02071428571428571300000000000000,-0.00500000000000000100000000000000,-0.007857142857142854200000000000000,-0.007857142857142854200000000000000,0.002857142857142856700000000000000,0.00928571428571428600000000000000,0.01214285714285714300000000000000,0.01428571428571428400000000000000,0.02285714285714285400000000000000,0.03500000000000000300000000000000,0.0257142857142857100000000000000,-0.02999999999999999900000000000000,0.01857142857142857200000000000000,0.01928571428571428800000000000000,-0.008571428571428570100000000000000,-0.0171428571428571400000000000000,-0.0342857142857142800000000000000,-0.004285714285714288500000000000000,-0.03499999999999999600000000000000,0.02000000000000000400000000000000,-0.0257142857142857100000000000000,0.01357142857142856800000000000000,-0.0200000000000000,-0.02071428571428571300000000000000,0.01285714285714285900000000000000,0.02785714285714285800000000000000,0.01071428571428571800000000000000,-0.007142857142857141800000000000000,0.007142857142857138300000000000000,0.006428571428571429300000000000000,-0.03285714285714285600000000000000,-0.02785714285714285800000000000000,0.006428571428571429300000000000000,0.02714285714285713500000000000000,-0.02999999999999999900000000000000,0.008571428571428570100000000000000,0.01000000000000000200000000000000,-0.01857142857142857200000000000000,0.02999999999999999900000000000000,-0.01428571428571428700000000000000,0.02857142857142856700000000000000,0.006428571428571429300000000000000,-0.007142857142857141800000000000000,-0.03142857142857143100000000000000,-0.01571428571428571200000000000000,-0.007857142857142854200000000000000,0.007142857142857138300000000000000,-0.005714285714285713400000000000000,0.01857142857142857200000000000000,-0.01642857142857142800000000000000,0.01428571428571428400000000000000,-0.01071428571428571400000000000000,0.01214285714285714300000000000000,-0.02999999999999999900000000000000,-0.02142857142857142900000000000000,0.004999999999999997500000000000000,0.02499999999999999400000000000000,0.01571428571428570800000000000000,-0.02214285714285714100000000000000,-0.01499999999999999900000000000000,0.007142857142857138300000000000000,0.01642857142857142400000000000000,0.004999999999999997500000000000000,0.02428571428571428500000000000000,0.01214285714285714300000000000000,0.02857142857142856700000000000000,-0.03142857142857143100000000000000,-0.001428571428571431800000000000000,-0.0342857142857142800000000000000,0.003571428571428572600000000000000,-0.02857142857142857100000000000000,-0.01357142857142857100000000000000,0.0007142857142857159100000000000000,-0.00928571428571428600000000000000,0.02714285714285713500000000000000,-0.01499999999999999900000000000000,0.02000000000000000400000000000000,0.03357142857142857200000000000000,0.01928571428571428800000000000000,-0.02071428571428571300000000000000,0.03571428571428571200000000000000,0.02071428571428571300000000000000,-0.0171428571428571400000000000000,0.001428571428571431800000000000000,-0.02642857142857142600000000000000,0.01428571428571428400000000000000,0.004285714285714288500000000000000,0.02214285714285714500000000000000,0.01857142857142857200000000000000,-0.01499999999999999900000000000000,0.00928571428571428600000000000000,-0.01214285714285714300000000000000,0.006428571428571429300000000000000,-0.0171428571428571400000000000000,0.01642857142857142400000000000000,-0.02214285714285714100000000000000,0.003571428571428572600000000000000,0.005714285714285713400000000000000,-0.03071428571428571100000000000000,0.01071428571428571800000000000000,-0.0007142857142857159100000000000000,0.01357142857142856800000000000000,-0.02999999999999999900000000000000,-0.03499999999999999600000000000000,-0.0342857142857142800000000000000,-0.02142857142857142900000000000000,-0.03499999999999999600000000000000,0,0.01857142857142857200000000000000,-0.007142857142857141800000000000000,0.002857142857142856700000000000000,0.002857142857142856700000000000000,-0.02071428571428571300000000000000,0.02714285714285713500000000000000,-0.007857142857142854200000000000000,-0.01499999999999999900000000000000,0.02642857142857142600000000000000,0.01428571428571428400000000000000,0.03571428571428571200000000000000,0.01785714285714285600000000000000,0.02785714285714285800000000000000,-0.005714285714285713400000000000000,-0.02642857142857142600000000000000,0.0342857142857142800000000000000,-0.02928571428571428300000000000000,0.007142857142857138300000000000000,-0.02142857142857142900000000000000,-0.004285714285714288500000000000000,0.008571428571428570100000000000000,-0.01928571428571428500000000000000,0.01357142857142856800000000000000,-0.007857142857142854200000000000000,0.03285714285714284900000000000000,0.005714285714285713400000000000000,-0.007142857142857141800000000000000,-0.007142857142857141800000000000000,0.01428571428571428400000000000000,-0.0235714285714285700000000000000,-0.0321428571428571400000000000000,0.03071428571428572200000000000000,-0.03285714285714285600000000000000,-0.01357142857142857100000000000000,-0.02071428571428571300000000000000,-0.03142857142857143100000000000000,-0.006428571428571429300000000000000,-0.03357142857142857200000000000000,0.0007142857142857159100000000000000,-0.003571428571428572600000000000000,0.01142857142857142700000000000000,-0.007142857142857141800000000000000,0.002857142857142856700000000000000,0.002142857142857147700000000000000,0.0321428571428571400000000000000,0.002857142857142856700000000000000,-0.01285714285714285500000000000000,0.004285714285714288500000000000000,-0.01214285714285714300000000000000,0.03142857142857141700000000000000,0.03142857142857141700000000000000,0.004999999999999997500000000000000,0.02785714285714285800000000000000,-0.0235714285714285700000000000000,0.0321428571428571400000000000000,0.01928571428571428800000000000000,0.01571428571428570800000000000000,-0.02142857142857142900000000000000,-0.01785714285714285600000000000000,0.0235714285714285700000000000000,0.01571428571428570800000000000000,-0.008571428571428570100000000000000,-0.03357142857142857200000000000000,-0.03499999999999999600000000000000,0.005714285714285713400000000000000,0.02000000000000000400000000000000,-0.02714285714285714200000000000000,-0.006428571428571429300000000000000,0.004285714285714288500000000000000,0.01214285714285714300000000000000,0.01000000000000000200000000000000,-0.03142857142857143100000000000000,-0.01214285714285714300000000000000,0.002142857142857147700000000000000,0.001428571428571431800000000000000,0.01571428571428570800000000000000,0.002857142857142856700000000000000,0.01428571428571428400000000000000,0.01142857142857142700000000000000,0.01071428571428571800000000000000,0.03285714285714284900000000000000,-0.01499999999999999900000000000000,-0.01642857142857142800000000000000,0.02999999999999999900000000000000,-0.01928571428571428500000000000000,-0.01499999999999999900000000000000,-0.03285714285714285600000000000000,-0.005714285714285713400000000000000,0.02214285714285714500000000000000,0.01642857142857142400000000000000,-0.002142857142857147700000000000000,-0.03285714285714285600000000000000,-0.02500000000000000100000000000000,0,0.0235714285714285700000000000000,-0.03285714285714285600000000000000,-0.007857142857142854200000000000000,0.01428571428571428400000000000000,-0.02071428571428571300000000000000,0.00928571428571428600000000000000,-0.02500000000000000100000000000000,-0.02428571428571428500000000000000,0.02499999999999999400000000000000,0.01142857142857142700000000000000,-0.02642857142857142600000000000000,-0.01571428571428571200000000000000,-0.01571428571428571200000000000000,0.004285714285714288500000000000000,0.02999999999999999900000000000000,0.002142857142857147700000000000000,-0.02857142857142857100000000000000,-0.01642857142857142800000000000000,-0.03499999999999999600000000000000,0.01499999999999999900000000000000,-0.02500000000000000100000000000000,0.002857142857142856700000000000000,-0.02642857142857142600000000000000,-0.02857142857142857100000000000000,-0.008571428571428570100000000000000,0.0007142857142857159100000000000000,0.01142857142857142700000000000000,-0.007142857142857141800000000000000,-0.0200000000000000,-0.02928571428571428300000000000000,-0.01285714285714285500000000000000,0.02285714285714285400000000000000,-0.02642857142857142600000000000000,0.001428571428571431800000000000000,0.02857142857142856700000000000000,-0.03142857142857143100000000000000,-0.002857142857142856700000000000000,-0.004285714285714288500000000000000,0.008571428571428570100000000000000,0.0007142857142857159100000000000000,0.02000000000000000400000000000000,-0.01142857142857142700000000000000,0.01357142857142856800000000000000,0.03357142857142857200000000000000,-0.001428571428571431800000000000000,0.01000000000000000200000000000000,-0.002857142857142856700000000000000,0.03500000000000000300000000000000,0.01928571428571428800000000000000,-0.007142857142857141800000000000000,-0.01499999999999999900000000000000,0.02071428571428571300000000000000,0,-0.02428571428571428500000000000000,0.0321428571428571400000000000000,-0.007142857142857141800000000000000,-0.004285714285714288500000000000000,-0.007142857142857141800000000000000,-0.001428571428571431800000000000000,0.004999999999999997500000000000000,0.03500000000000000300000000000000,0.02071428571428571300000000000000,0.02071428571428571300000000000000,-0.01785714285714285600000000000000,-0.02642857142857142600000000000000,0.02285714285714285400000000000000,0.007857142857142854200000000000000,0.03142857142857141700000000000000,0.01928571428571428800000000000000,0.0292857142857142900000000000000,0.03285714285714284900000000000000,-0.01357142857142857100000000000000,0,0.0171428571428571400000000000000,0.0171428571428571400000000000000,-0.00928571428571428600000000000000,-0.002857142857142856700000000000000,0.008571428571428570100000000000000,-0.01928571428571428500000000000000,-0.01571428571428571200000000000000,0.02785714285714285800000000000000,0.02000000000000000400000000000000,0.03500000000000000300000000000000,0.02285714285714285400000000000000,0.03285714285714284900000000000000,-0.02214285714285714100000000000000,0.03285714285714284900000000000000,-0.01642857142857142800000000000000,-0.0171428571428571400000000000000,0.007857142857142854200000000000000,0,-0.006428571428571429300000000000000,0.02999999999999999900000000000000,-0.01428571428571428700000000000000,0.01214285714285714300000000000000,-0.01357142857142857100000000000000,0.001428571428571431800000000000000,0,0.01642857142857142400000000000000,0.0292857142857142900000000000000,0.02142857142857142900000000000000,-0.0007142857142857159100000000000000,-0.03142857142857143100000000000000,-0.02714285714285714200000000000000,0.00928571428571428600000000000000,0.01142857142857142700000000000000,0.01857142857142857200000000000000,-0.01357142857142857100000000000000,-0.0007142857142857159100000000000000,0.02142857142857142900000000000000,0.01928571428571428800000000000000,0.03071428571428572200000000000000,-0.01928571428571428500000000000000,0.02000000000000000400000000000000,0.01571428571428570800000000000000,0.005714285714285713400000000000000,-0.002857142857142856700000000000000,-0.0257142857142857100000000000000,-0.01000000000000000200000000000000,-0.02999999999999999900000000000000,-0.01285714285714285500000000000000,-0.01785714285714285600000000000000,0.01642857142857142400000000000000,0.0235714285714285700000000000000,0.02285714285714285400000000000000,0.01928571428571428800000000000000,-0.03499999999999999600000000000000,-0.001428571428571431800000000000000,-0.02999999999999999900000000000000,0.01000000000000000200000000000000,0.02999999999999999900000000000000,0.01000000000000000200000000000000,-0.005714285714285713400000000000000,-0.01142857142857142700000000000000,-0.007857142857142854200000000000000,-0.02857142857142857100000000000000,0.004285714285714288500000000000000,-0.02642857142857142600000000000000,0.005714285714285713400000000000000,-0.002142857142857147700000000000000,0.02785714285714285800000000000000,-0.01928571428571428500000000000000,0.02999999999999999900000000000000,-0.03499999999999999600000000000000,0.01499999999999999900000000000000,0.0292857142857142900000000000000,-0.02500000000000000100000000000000,-0.01428571428571428700000000000000,-0.0200000000000000,-0.002142857142857147700000000000000,-0.01857142857142857200000000000000,-0.002857142857142856700000000000000,0.008571428571428570100000000000000,0.008571428571428570100000000000000,-0.01857142857142857200000000000000,-0.02142857142857142900000000000000,-0.0257142857142857100000000000000,0.02000000000000000400000000000000,0.01857142857142857200000000000000,0.002142857142857147700000000000000,-0.02285714285714285700000000000000,0.02714285714285713500000000000000,-0.0200000000000000,-0.02071428571428571300000000000000,-0.01928571428571428500000000000000,0.0342857142857142800000000000000,0.03571428571428571200000000000000,-0.03142857142857143100000000000000,-0.02071428571428571300000000000000,0.01285714285714285900000000000000,-0.02428571428571428500000000000000,0.008571428571428570100000000000000,-0.0171428571428571400000000000000,0.00928571428571428600000000000000,-0.006428571428571429300000000000000,-0.01571428571428571200000000000000,-0.03142857142857143100000000000000,-0.01928571428571428500000000000000,-0.00928571428571428600000000000000,0.0342857142857142800000000000000,-0.0007142857142857159100000000000000,-0.02999999999999999900000000000000,0.007142857142857138300000000000000,-0.0342857142857142800000000000000,0.01000000000000000200000000000000,0.02285714285714285400000000000000,0.02428571428571428500000000000000,-0.0342857142857142800000000000000,0.0342857142857142800000000000000,0.003571428571428572600000000000000,-0.02928571428571428300000000000000,-0.02642857142857142600000000000000,-0.0171428571428571400000000000000,-0.03499999999999999600000000000000,0.0171428571428571400000000000000,0.002857142857142856700000000000000,-0.002142857142857147700000000000000,0.007857142857142854200000000000000,0.02499999999999999400000000000000,0.01499999999999999900000000000000,0.0321428571428571400000000000000,-0.007857142857142854200000000000000,0.001428571428571431800000000000000,0.00928571428571428600000000000000,0.02714285714285713500000000000000,-0.02785714285714285800000000000000,-0.02142857142857142900000000000000,0.01785714285714285600000000000000,0.02285714285714285400000000000000,0.01000000000000000200000000000000,0.0257142857142857100000000000000,0.01785714285714285600000000000000,0.001428571428571431800000000000000,-0.02500000000000000100000000000000,0.01214285714285714300000000000000,0.00928571428571428600000000000000,-0.01142857142857142700000000000000,0.02857142857142856700000000000000,-0.007142857142857141800000000000000,0.003571428571428572600000000000000,0.02071428571428571300000000000000,0.01357142857142856800000000000000,-0.00500000000000000100000000000000,0.03285714285714284900000000000000,0.01071428571428571800000000000000,0.01857142857142857200000000000000,0.01357142857142856800000000000000,0.01000000000000000200000000000000,0.01428571428571428400000000000000,-0.0257142857142857100000000000000,-0.003571428571428572600000000000000,0.0171428571428571400000000000000,0.03571428571428571200000000000000,0.02857142857142856700000000000000,-0.007857142857142854200000000000000,0.02285714285714285400000000000000,-0.01071428571428571400000000000000,-0.003571428571428572600000000000000,0.001428571428571431800000000000000,0.01357142857142856800000000000000,-0.03285714285714285600000000000000,0.0321428571428571400000000000000,-0.0235714285714285700000000000000,-0.001428571428571431800000000000000,0.02499999999999999400000000000000,0.03357142857142857200000000000000,-0.0171428571428571400000000000000,-0.006428571428571429300000000000000,0.001428571428571431800000000000000,-0.03142857142857143100000000000000,0.02857142857142856700000000000000,0.02642857142857142600000000000000,-0.01142857142857142700000000000000,-0.02142857142857142900000000000000,-0.00500000000000000100000000000000,-0.01642857142857142800000000000000,0.01928571428571428800000000000000,0.01071428571428571800000000000000,0.03500000000000000300000000000000,0.008571428571428570100000000000000,-0.02714285714285714200000000000000,0.0007142857142857159100000000000000,0.004285714285714288500000000000000,-0.006428571428571429300000000000000,0.01642857142857142400000000000000,-0.01214285714285714300000000000000,-0.01571428571428571200000000000000,-0.01357142857142857100000000000000,0.006428571428571429300000000000000,-0.002142857142857147700000000000000,-0.002857142857142856700000000000000,0.01428571428571428400000000000000,0.03071428571428572200000000000000,0.02142857142857142900000000000000,0.00928571428571428600000000000000,-0.02071428571428571300000000000000,-0.0342857142857142800000000000000,0.02214285714285714500000000000000,-0.02999999999999999900000000000000,-0.02428571428571428500000000000000,0.02071428571428571300000000000000,0.01357142857142856800000000000000,0.03500000000000000300000000000000,-0.02714285714285714200000000000000,0.01428571428571428400000000000000,-0.007857142857142854200000000000000,-0.03499999999999999600000000000000,-0.01499999999999999900000000000000,-0.01571428571428571200000000000000,-0.004285714285714288500000000000000,0.00928571428571428600000000000000,-0.006428571428571429300000000000000,0.03071428571428572200000000000000,0.01428571428571428400000000000000,0.02642857142857142600000000000000,-0.01142857142857142700000000000000,0.01142857142857142700000000000000,-0.01000000000000000200000000000000,0.01642857142857142400000000000000,0.03500000000000000300000000000000,0.001428571428571431800000000000000,0.01428571428571428400000000000000,0.01642857142857142400000000000000,-0.01642857142857142800000000000000,-0.02500000000000000100000000000000,0.01499999999999999900000000000000,0.006428571428571429300000000000000,-0.007857142857142854200000000000000,0.02857142857142856700000000000000,0.01357142857142856800000000000000,-0.02857142857142857100000000000000,-0.01785714285714285600000000000000,-0.01785714285714285600000000000000,-0.02928571428571428300000000000000,0.02214285714285714500000000000000,0.02999999999999999900000000000000,-0.0171428571428571400000000000000,0.01000000000000000200000000000000,0.03285714285714284900000000000000,-0.0257142857142857100000000000000,0.004999999999999997500000000000000,-0.006428571428571429300000000000000,-0.00928571428571428600000000000000,0.03571428571428571200000000000000,-0.03499999999999999600000000000000,-0.01000000000000000200000000000000,-0.0171428571428571400000000000000,-0.00928571428571428600000000000000,-0.02428571428571428500000000000000,0,-0.03142857142857143100000000000000,0.002142857142857147700000000000000,-0.0342857142857142800000000000000,-0.01142857142857142700000000000000,0.02857142857142856700000000000000,-0.01928571428571428500000000000000,0.02999999999999999900000000000000,0.01499999999999999900000000000000,-0.02285714285714285700000000000000,0.007857142857142854200000000000000,-0.01285714285714285500000000000000,0.006428571428571429300000000000000,0.001428571428571431800000000000000,-0.01071428571428571400000000000000,0.0235714285714285700000000000000,-0.03285714285714285600000000000000,-0.02142857142857142900000000000000,-0.01142857142857142700000000000000,-0.004285714285714288500000000000000,0.01357142857142856800000000000000,0.03571428571428571200000000000000,-0.01357142857142857100000000000000,0.0292857142857142900000000000000,-0.03357142857142857200000000000000,0.01499999999999999900000000000000,-0.02214285714285714100000000000000,-0.02142857142857142900000000000000,-0.02071428571428571300000000000000,-0.01857142857142857200000000000000,0.03285714285714284900000000000000,-0.00928571428571428600000000000000,-0.02142857142857142900000000000000,-0.01285714285714285500000000000000,0.01642857142857142400000000000000,0.01071428571428571800000000000000,0.01214285714285714300000000000000,-0.02428571428571428500000000000000,-0.01428571428571428700000000000000,-0.01928571428571428500000000000000,-0.03142857142857143100000000000000,0.02999999999999999900000000000000,0.02642857142857142600000000000000,0,-0.01857142857142857200000000000000,-0.02928571428571428300000000000000,-0.03142857142857143100000000000000,0.008571428571428570100000000000000,0.003571428571428572600000000000000,0.01499999999999999900000000000000,-0.01928571428571428500000000000000,0.0321428571428571400000000000000,0.00928571428571428600000000000000,-0.00500000000000000100000000000000,0.0235714285714285700000000000000,0.01571428571428570800000000000000,0.03571428571428571200000000000000,0,0.02857142857142856700000000000000,-0.01071428571428571400000000000000,0.03285714285714284900000000000000,-0.02285714285714285700000000000000,-0.02071428571428571300000000000000,0.03500000000000000300000000000000,-0.0342857142857142800000000000000,0.00928571428571428600000000000000,-0.001428571428571431800000000000000,-0.01428571428571428700000000000000,-0.01571428571428571200000000000000,0.004285714285714288500000000000000,0.002142857142857147700000000000000,0.02714285714285713500000000000000,0.0257142857142857100000000000000,0.01571428571428570800000000000000,0.01071428571428571800000000000000,0.006428571428571429300000000000000,0.01571428571428570800000000000000,-0.0007142857142857159100000000000000,0.0321428571428571400000000000000,0.001428571428571431800000000000000,0.02285714285714285400000000000000,-0.03357142857142857200000000000000,0.002857142857142856700000000000000,-0.02500000000000000100000000000000,0.03142857142857141700000000000000,-0.005714285714285713400000000000000,0.01428571428571428400000000000000,0.0292857142857142900000000000000,0.02285714285714285400000000000000,-0.007142857142857141800000000000000,-0.02285714285714285700000000000000,0.007142857142857138300000000000000,-0.008571428571428570100000000000000,0.01571428571428570800000000000000,-0.001428571428571431800000000000000,-0.02714285714285714200000000000000,-0.02714285714285714200000000000000,-0.0257142857142857100000000000000,-0.02642857142857142600000000000000,0.0235714285714285700000000000000,0,0.02000000000000000400000000000000,-0.01928571428571428500000000000000,0.002857142857142856700000000000000,0.01857142857142857200000000000000,0.02857142857142856700000000000000,0.02714285714285713500000000000000,0.01785714285714285600000000000000,0.0235714285714285700000000000000,0.01142857142857142700000000000000,0.002142857142857147700000000000000,0.006428571428571429300000000000000,0.03071428571428572200000000000000,0.001428571428571431800000000000000,0.01214285714285714300000000000000,-0.02999999999999999900000000000000,-0.005714285714285713400000000000000,0.01857142857142857200000000000000,0.004285714285714288500000000000000,0.001428571428571431800000000000000,-0.0171428571428571400000000000000,0.01928571428571428800000000000000,-0.0257142857142857100000000000000,-0.02642857142857142600000000000000,0.03285714285714284900000000000000,-0.0321428571428571400000000000000,-0.03071428571428571100000000000000,0.02000000000000000400000000000000,-0.02642857142857142600000000000000,0,-0.0007142857142857159100000000000000,0.01928571428571428800000000000000,0.01142857142857142700000000000000,-0.01214285714285714300000000000000,-0.01285714285714285500000000000000,0.01214285714285714300000000000000,0.02999999999999999900000000000000,0.0292857142857142900000000000000,0.006428571428571429300000000000000,0.02000000000000000400000000000000,-0.03499999999999999600000000000000,-0.00928571428571428600000000000000,-0.01857142857142857200000000000000,-0.008571428571428570100000000000000,-0.00500000000000000100000000000000,-0.01214285714285714300000000000000,-0.02500000000000000100000000000000,-0.005714285714285713400000000000000,0.03142857142857141700000000000000,-0.00500000000000000100000000000000,-0.01428571428571428700000000000000,-0.02785714285714285800000000000000,0.0292857142857142900000000000000,-0.0321428571428571400000000000000,-0.03142857142857143100000000000000,0.01571428571428570800000000000000,-0.02428571428571428500000000000000,0.007857142857142854200000000000000,0.007142857142857138300000000000000,-0.007142857142857141800000000000000,0.0321428571428571400000000000000,0.01142857142857142700000000000000,-0.02857142857142857100000000000000,-0.01499999999999999900000000000000,-0.02642857142857142600000000000000,0.01428571428571428400000000000000,0.01285714285714285900000000000000,0.005714285714285713400000000000000,0.01357142857142856800000000000000,0.02642857142857142600000000000000,0.006428571428571429300000000000000,-0.001428571428571431800000000000000,-0.003571428571428572600000000000000,0.01642857142857142400000000000000,-0.0007142857142857159100000000000000,0.007142857142857138300000000000000,-0.0007142857142857159100000000000000,0.0342857142857142800000000000000,-0.01571428571428571200000000000000,0.02499999999999999400000000000000,-0.02999999999999999900000000000000,-0.01071428571428571400000000000000,-0.00500000000000000100000000000000,0.01571428571428570800000000000000,0.0292857142857142900000000000000,0.01785714285714285600000000000000,0.03500000000000000300000000000000,-0.02214285714285714100000000000000,0,-0.02928571428571428300000000000000,-0.01642857142857142800000000000000,-0.01499999999999999900000000000000,0.007142857142857138300000000000000,-0.03071428571428571100000000000000,0.01428571428571428400000000000000,0.02857142857142856700000000000000,-0.01142857142857142700000000000000,-0.01857142857142857200000000000000,0.02142857142857142900000000000000,0.01499999999999999900000000000000,-0.03499999999999999600000000000000,0.01071428571428571800000000000000,-0.02500000000000000100000000000000,-0.03499999999999999600000000000000,-0.01000000000000000200000000000000,0.01285714285714285900000000000000,-0.01357142857142857100000000000000,-0.02785714285714285800000000000000,0.01857142857142857200000000000000,0.01857142857142857200000000000000,-0.0007142857142857159100000000000000,-0.00928571428571428600000000000000,0.0171428571428571400000000000000,-0.03499999999999999600000000000000,-0.02999999999999999900000000000000,0.003571428571428572600000000000000,0.02999999999999999900000000000000,-0.002142857142857147700000000000000,0.01571428571428570800000000000000,0.01000000000000000200000000000000,0.004285714285714288500000000000000,-0.006428571428571429300000000000000,0.02857142857142856700000000000000,0.003571428571428572600000000000000,-0.00928571428571428600000000000000,0.02428571428571428500000000000000,-0.02999999999999999900000000000000,-0.00500000000000000100000000000000,-0.03285714285714285600000000000000,-0.01857142857142857200000000000000,-0.02785714285714285800000000000000,-0.01142857142857142700000000000000,0.008571428571428570100000000000000,0.02857142857142856700000000000000,0.03500000000000000300000000000000,-0.003571428571428572600000000000000,0.0342857142857142800000000000000,-0.005714285714285713400000000000000,-0.01428571428571428700000000000000,0.008571428571428570100000000000000,-0.005714285714285713400000000000000,-0.03357142857142857200000000000000,0.0321428571428571400000000000000,-0.01428571428571428700000000000000,0.002142857142857147700000000000000,0.02214285714285714500000000000000,0.03571428571428571200000000000000,0.007142857142857138300000000000000,-0.002142857142857147700000000000000,0.0257142857142857100000000000000,-0.02071428571428571300000000000000,0.002142857142857147700000000000000,-0.01857142857142857200000000000000,0.01571428571428570800000000000000,-0.01642857142857142800000000000000,0.01928571428571428800000000000000,0.01428571428571428400000000000000,-0.0200000000000000,-0.0007142857142857159100000000000000,-0.0342857142857142800000000000000,0.01428571428571428400000000000000,-0.0235714285714285700000000000000,-0.01142857142857142700000000000000,0.004285714285714288500000000000000,-0.0007142857142857159100000000000000,-0.01499999999999999900000000000000,0.0292857142857142900000000000000,-0.01857142857142857200000000000000,0.0292857142857142900000000000000,-0.02999999999999999900000000000000,0.0171428571428571400000000000000,0.007857142857142854200000000000000,0.0007142857142857159100000000000000,0.002857142857142856700000000000000,0.03571428571428571200000000000000,-0.01571428571428571200000000000000,-0.02642857142857142600000000000000,0.01428571428571428400000000000000,0.003571428571428572600000000000000,-0.007857142857142854200000000000000,0.03285714285714284900000000000000,-0.01285714285714285500000000000000,0.0235714285714285700000000000000,0.03357142857142857200000000000000,0.02428571428571428500000000000000,-0.00500000000000000100000000000000,0.01928571428571428800000000000000,0.01499999999999999900000000000000,0.0292857142857142900000000000000,-0.0235714285714285700000000000000,0.01000000000000000200000000000000,0.02285714285714285400000000000000,-0.0007142857142857159100000000000000,-0.02428571428571428500000000000000,-0.001428571428571431800000000000000,0.0321428571428571400000000000000,-0.02857142857142857100000000000000,0.0321428571428571400000000000000,-0.02142857142857142900000000000000,0.0007142857142857159100000000000000,-0.02785714285714285800000000000000,-0.01142857142857142700000000000000,-0.001428571428571431800000000000000,0.01857142857142857200000000000000,0.03357142857142857200000000000000,0.02000000000000000400000000000000,-0.007857142857142854200000000000000,-0.01642857142857142800000000000000,0.002142857142857147700000000000000,0.02714285714285713500000000000000,0.01357142857142856800000000000000,-0.01857142857142857200000000000000,-0.01357142857142857100000000000000,-0.01285714285714285500000000000000,-0.02999999999999999900000000000000,0.01285714285714285900000000000000,0.01142857142857142700000000000000,-0.0007142857142857159100000000000000,-0.0321428571428571400000000000000,-0.01499999999999999900000000000000,0.0235714285714285700000000000000,-0.01000000000000000200000000000000,-0.03499999999999999600000000000000,0.0321428571428571400000000000000,-0.01499999999999999900000000000000,0.02428571428571428500000000000000,0.02214285714285714500000000000000,0.02999999999999999900000000000000,-0.001428571428571431800000000000000,0.01571428571428570800000000000000,0.03071428571428572200000000000000,0.01000000000000000200000000000000,0.004999999999999997500000000000000,0.02071428571428571300000000000000,0.03500000000000000300000000000000,-0.01928571428571428500000000000000,0.005714285714285713400000000000000,0.0342857142857142800000000000000,-0.01285714285714285500000000000000,0.02999999999999999900000000000000,0.02071428571428571300000000000000,0.02214285714285714500000000000000,-0.03357142857142857200000000000000,0.03500000000000000300000000000000,-0.01357142857142857100000000000000,-0.00500000000000000100000000000000,0.006428571428571429300000000000000,0.01928571428571428800000000000000,0.01499999999999999900000000000000,0.02071428571428571300000000000000,-0.006428571428571429300000000000000,0.0292857142857142900000000000000,0.02642857142857142600000000000000,0.006428571428571429300000000000000,-0.02071428571428571300000000000000,0.001428571428571431800000000000000,-0.01428571428571428700000000000000,0.02000000000000000400000000000000,-0.02071428571428571300000000000000,0.01499999999999999900000000000000,-0.02071428571428571300000000000000,0.0235714285714285700000000000000,0.02857142857142856700000000000000,0.01571428571428570800000000000000,0.01214285714285714300000000000000,0.0292857142857142900000000000000,-0.03285714285714285600000000000000,0.0342857142857142800000000000000,0.00928571428571428600000000000000,0.02071428571428571300000000000000,-0.001428571428571431800000000000000,-0.0007142857142857159100000000000000,0.01071428571428571800000000000000,-0.0257142857142857100000000000000,-0.02999999999999999900000000000000,0.007857142857142854200000000000000,0.008571428571428570100000000000000,0.004285714285714288500000000000000,-0.0321428571428571400000000000000,0.008571428571428570100000000000000,-0.008571428571428570100000000000000,-0.02714285714285714200000000000000,0.01857142857142857200000000000000,-0.003571428571428572600000000000000,-0.01642857142857142800000000000000,-0.01000000000000000200000000000000,-0.01642857142857142800000000000000,0.01214285714285714300000000000000,-0.001428571428571431800000000000000,0.02000000000000000400000000000000,0.02785714285714285800000000000000,-0.00928571428571428600000000000000,0.01214285714285714300000000000000,-0.01571428571428571200000000000000,0.01857142857142857200000000000000,-0.001428571428571431800000000000000,0.02071428571428571300000000000000,-0.001428571428571431800000000000000,0.0342857142857142800000000000000,-0.0235714285714285700000000000000,0.03571428571428571200000000000000,0.007857142857142854200000000000000,0.03142857142857141700000000000000,0.02999999999999999900000000000000,0.004285714285714288500000000000000,0,0.01285714285714285900000000000000,0.02714285714285713500000000000000,-0.02857142857142857100000000000000,-0.004285714285714288500000000000000,0.03571428571428571200000000000000,0.0342857142857142800000000000000,-0.006428571428571429300000000000000,-0.02285714285714285700000000000000,0.0292857142857142900000000000000,0.0321428571428571400000000000000,-0.002142857142857147700000000000000,0.02999999999999999900000000000000,-0.03357142857142857200000000000000,0.02071428571428571300000000000000,-0.005714285714285713400000000000000,0.003571428571428572600000000000000,0.03285714285714284900000000000000,0.01857142857142857200000000000000,0.0007142857142857159100000000000000,0.02142857142857142900000000000000,0.02857142857142856700000000000000,-0.01428571428571428700000000000000,-0.0342857142857142800000000000000,-0.00500000000000000100000000000000,0.02214285714285714500000000000000,-0.006428571428571429300000000000000,-0.0321428571428571400000000000000,0.02642857142857142600000000000000,-0.0171428571428571400000000000000,-0.02785714285714285800000000000000,0.01000000000000000200000000000000,-0.03357142857142857200000000000000,0.02999999999999999900000000000000,0.02000000000000000400000000000000,-0.004285714285714288500000000000000,0.0235714285714285700000000000000,-0.007857142857142854200000000000000,0.02785714285714285800000000000000,0.02857142857142856700000000000000,0.002857142857142856700000000000000,0.01285714285714285900000000000000,0.0342857142857142800000000000000,-0.02785714285714285800000000000000,0.008571428571428570100000000000000,0.01928571428571428800000000000000,0.03571428571428571200000000000000,-0.0257142857142857100000000000000,-0.008571428571428570100000000000000,-0.0257142857142857100000000000000,0.008571428571428570100000000000000,0.002142857142857147700000000000000,0.0007142857142857159100000000000000,-0.02428571428571428500000000000000,-0.01857142857142857200000000000000,-0.02500000000000000100000000000000,-0.01071428571428571400000000000000,0.02214285714285714500000000000000,-0.001428571428571431800000000000000,-0.0342857142857142800000000000000,0.02000000000000000400000000000000,-0.003571428571428572600000000000000,-0.01000000000000000200000000000000,-0.02999999999999999900000000000000,-0.02642857142857142600000000000000,0.0235714285714285700000000000000,0.01642857142857142400000000000000,0.02999999999999999900000000000000,0.02714285714285713500000000000000,0.00928571428571428600000000000000,-0.03285714285714285600000000000000,0.01142857142857142700000000000000,-0.008571428571428570100000000000000,-0.0257142857142857100000000000000,0.001428571428571431800000000000000,0.01499999999999999900000000000000,-0.02428571428571428500000000000000,0.002857142857142856700000000000000,-0.03357142857142857200000000000000,-0.01428571428571428700000000000000,-0.02857142857142857100000000000000,-0.001428571428571431800000000000000,0.01928571428571428800000000000000,-0.02928571428571428300000000000000,0.01071428571428571800000000000000,-0.02214285714285714100000000000000,0.03357142857142857200000000000000,0.01285714285714285900000000000000,-0.01142857142857142700000000000000,0.0007142857142857159100000000000000,0.03500000000000000300000000000000,-0.01142857142857142700000000000000,-0.01785714285714285600000000000000,0.008571428571428570100000000000000,0.002857142857142856700000000000000,-0.005714285714285713400000000000000,-0.003571428571428572600000000000000,0.01928571428571428800000000000000,-0.03357142857142857200000000000000,-0.01428571428571428700000000000000,0.0235714285714285700000000000000,-0.0200000000000000,-0.02642857142857142600000000000000,0.02499999999999999400000000000000,-0.002857142857142856700000000000000,0.03357142857142857200000000000000,-0.002857142857142856700000000000000,0.03142857142857141700000000000000,-0.01142857142857142700000000000000,0.02499999999999999400000000000000,0.03142857142857141700000000000000,-0.01357142857142857100000000000000,0.02428571428571428500000000000000,0.03071428571428572200000000000000,0.0292857142857142900000000000000,-0.03071428571428571100000000000000,-0.02714285714285714200000000000000,0.01428571428571428400000000000000,0.001428571428571431800000000000000,0.02071428571428571300000000000000,-0.02999999999999999900000000000000,0.0171428571428571400000000000000,-0.03357142857142857200000000000000,0.01214285714285714300000000000000,0.01071428571428571800000000000000,-0.01214285714285714300000000000000,-0.02142857142857142900000000000000,0.004285714285714288500000000000000,-0.02214285714285714100000000000000,0.03500000000000000300000000000000,-0.03071428571428571100000000000000,0.02785714285714285800000000000000,0.01357142857142856800000000000000,-0.002142857142857147700000000000000,0.02499999999999999400000000000000,-0.03357142857142857200000000000000,0.01642857142857142400000000000000,0.02285714285714285400000000000000,0.01928571428571428800000000000000,-0.006428571428571429300000000000000,0.01642857142857142400000000000000,0.03500000000000000300000000000000,0.02000000000000000400000000000000,0.004285714285714288500000000000000,-0.01928571428571428500000000000000,-0.006428571428571429300000000000000,0.02642857142857142600000000000000,0.0257142857142857100000000000000,0.03500000000000000300000000000000,0.02785714285714285800000000000000,0.006428571428571429300000000000000,-0.03499999999999999600000000000000,0.002857142857142856700000000000000,0.03142857142857141700000000000000,-0.02285714285714285700000000000000,-0.02500000000000000100000000000000,0.01357142857142856800000000000000,0.006428571428571429300000000000000,0.007142857142857138300000000000000,0.01785714285714285600000000000000,0.02285714285714285400000000000000,0.01571428571428570800000000000000,-0.02714285714285714200000000000000,0.002857142857142856700000000000000,-0.02285714285714285700000000000000,0.02071428571428571300000000000000,-0.02142857142857142900000000000000,-0.03071428571428571100000000000000,-0.004285714285714288500000000000000,0.007142857142857138300000000000000,0.00928571428571428600000000000000,0.001428571428571431800000000000000,0.03071428571428572200000000000000,-0.01142857142857142700000000000000,0.0321428571428571400000000000000,0.02642857142857142600000000000000,-0.02142857142857142900000000000000,-0.003571428571428572600000000000000,0.03357142857142857200000000000000,-0.03071428571428571100000000000000,0.01000000000000000200000000000000,-0.02928571428571428300000000000000,-0.0235714285714285700000000000000,0.008571428571428570100000000000000,0.02714285714285713500000000000000,-0.02142857142857142900000000000000,0.0257142857142857100000000000000,0.02285714285714285400000000000000,0.02857142857142856700000000000000,0.0257142857142857100000000000000,0.004999999999999997500000000000000,0.00928571428571428600000000000000,-0.03357142857142857200000000000000,-0.02714285714285714200000000000000,-0.01857142857142857200000000000000,0.03357142857142857200000000000000,-0.006428571428571429300000000000000,-0.007142857142857141800000000000000,0.0007142857142857159100000000000000,0.0292857142857142900000000000000,-0.0342857142857142800000000000000,0.0007142857142857159100000000000000,0.01428571428571428400000000000000,-0.01642857142857142800000000000000,-0.01499999999999999900000000000000,-0.02714285714285714200000000000000,-0.0257142857142857100000000000000,-0.01142857142857142700000000000000,0.003571428571428572600000000000000,-0.02214285714285714100000000000000,0.01285714285714285900000000000000,0.0257142857142857100000000000000,-0.01642857142857142800000000000000,0.01357142857142856800000000000000,0.02857142857142856700000000000000,0.002857142857142856700000000000000,0.02499999999999999400000000000000,0.0235714285714285700000000000000,0.007857142857142854200000000000000,-0.0171428571428571400000000000000,-0.002142857142857147700000000000000,-0.006428571428571429300000000000000,0.01214285714285714300000000000000,0.001428571428571431800000000000000,0.01642857142857142400000000000000,0.03571428571428571200000000000000,0.01142857142857142700000000000000,-0.03142857142857143100000000000000,0.006428571428571429300000000000000,0.004999999999999997500000000000000,-0.004285714285714288500000000000000,-0.0235714285714285700000000000000,0.02714285714285713500000000000000,-0.03285714285714285600000000000000,0.01928571428571428800000000000000,-0.003571428571428572600000000000000,-0.0171428571428571400000000000000,0.007857142857142854200000000000000,-0.00928571428571428600000000000000,-0.02285714285714285700000000000000,-0.01071428571428571400000000000000,0.0171428571428571400000000000000,0.01142857142857142700000000000000,-0.01928571428571428500000000000000,-0.02928571428571428300000000000000,0.004999999999999997500000000000000,0.02000000000000000400000000000000,-0.02928571428571428300000000000000,-0.005714285714285713400000000000000,-0.002142857142857147700000000000000,-0.0235714285714285700000000000000,0.02857142857142856700000000000000,-0.0321428571428571400000000000000,-0.02071428571428571300000000000000,-0.03142857142857143100000000000000,-0.0257142857142857100000000000000,-0.003571428571428572600000000000000,0.0171428571428571400000000000000,-0.005714285714285713400000000000000,0.03071428571428572200000000000000,0.03500000000000000300000000000000,-0.005714285714285713400000000000000,-0.01499999999999999900000000000000,0.0257142857142857100000000000000,-0.0171428571428571400000000000000,0.03142857142857141700000000000000,-0.002142857142857147700000000000000,-0.02714285714285714200000000000000,0.03500000000000000300000000000000,0.02642857142857142600000000000000,0.01142857142857142700000000000000,0.006428571428571429300000000000000,-0.02071428571428571300000000000000,0.02071428571428571300000000000000,0.01428571428571428400000000000000,0.01428571428571428400000000000000,0.02000000000000000400000000000000,-0.00928571428571428600000000000000,0.01928571428571428800000000000000,0.03142857142857141700000000000000,-0.02285714285714285700000000000000,-0.03499999999999999600000000000000,0.01642857142857142400000000000000,-0.03499999999999999600000000000000,0.01285714285714285900000000000000,0.01857142857142857200000000000000,0.03142857142857141700000000000000,0.02428571428571428500000000000000,-0.01642857142857142800000000000000,-0.00928571428571428600000000000000,-0.02999999999999999900000000000000,-0.02071428571428571300000000000000,0.0342857142857142800000000000000,-0.02428571428571428500000000000000,0.01285714285714285900000000000000,0.01142857142857142700000000000000,-0.01071428571428571400000000000000,0.03071428571428572200000000000000,-0.0171428571428571400000000000000,-0.0257142857142857100000000000000,0.01642857142857142400000000000000,-0.02714285714285714200000000000000,-0.01071428571428571400000000000000,0.02214285714285714500000000000000,-0.01285714285714285500000000000000,0.03571428571428571200000000000000,-0.02999999999999999900000000000000,-0.01142857142857142700000000000000,0.01357142857142856800000000000000,0.002857142857142856700000000000000,0.0235714285714285700000000000000,-0.002857142857142856700000000000000,0.02857142857142856700000000000000,0.01000000000000000200000000000000,0.03571428571428571200000000000000,-0.02999999999999999900000000000000,0.02071428571428571300000000000000,0.03357142857142857200000000000000,0.02071428571428571300000000000000,-0.03071428571428571100000000000000,0,0,0.01000000000000000200000000000000,0.01571428571428570800000000000000,0.01000000000000000200000000000000,-0.005714285714285713400000000000000,0.0292857142857142900000000000000,-0.01571428571428571200000000000000,0.02999999999999999900000000000000,0.01142857142857142700000000000000,-0.006428571428571429300000000000000,0.01000000000000000200000000000000,-0.02785714285714285800000000000000,0.03571428571428571200000000000000,-0.005714285714285713400000000000000,-0.00500000000000000100000000000000,0.02214285714285714500000000000000,0.01000000000000000200000000000000,-0.01857142857142857200000000000000,-0.02999999999999999900000000000000,0.00928571428571428600000000000000,0.0321428571428571400000000000000,-0.01857142857142857200000000000000,0.01642857142857142400000000000000,0.03357142857142857200000000000000,-0.001428571428571431800000000000000,-0.02428571428571428500000000000000,0.0235714285714285700000000000000,0.006428571428571429300000000000000,-0.02071428571428571300000000000000,0.01928571428571428800000000000000,-0.01642857142857142800000000000000,-0.01142857142857142700000000000000,-0.03071428571428571100000000000000,0.0342857142857142800000000000000,0.02428571428571428500000000000000,-0.004285714285714288500000000000000,-0.01285714285714285500000000000000,0.02999999999999999900000000000000,0.02285714285714285400000000000000,0.02999999999999999900000000000000,-0.03071428571428571100000000000000,0.01285714285714285900000000000000,0.002857142857142856700000000000000,0.002857142857142856700000000000000,0.004999999999999997500000000000000,0.002857142857142856700000000000000,-0.02785714285714285800000000000000,0.01214285714285714300000000000000,-0.01571428571428571200000000000000,-0.02785714285714285800000000000000,-0.007142857142857141800000000000000,0.02071428571428571300000000000000,0.03071428571428572200000000000000,-0.01571428571428571200000000000000,-0.02214285714285714100000000000000,0.03571428571428571200000000000000,-0.01499999999999999900000000000000,0.004285714285714288500000000000000,0.02000000000000000400000000000000,0.00928571428571428600000000000000,0.008571428571428570100000000000000,-0.01000000000000000200000000000000,0.007142857142857138300000000000000,0.03285714285714284900000000000000,0.0292857142857142900000000000000,-0.005714285714285713400000000000000,-0.002857142857142856700000000000000,0.00928571428571428600000000000000,-0.03142857142857143100000000000000,-0.01214285714285714300000000000000,-0.03142857142857143100000000000000,0.03285714285714284900000000000000,-0.03071428571428571100000000000000,-0.01071428571428571400000000000000,0.01285714285714285900000000000000,0.02285714285714285400000000000000,0.01642857142857142400000000000000,0.01142857142857142700000000000000,0.0235714285714285700000000000000,0.0235714285714285700000000000000,-0.008571428571428570100000000000000,-0.00500000000000000100000000000000,0.03142857142857141700000000000000,0.02000000000000000400000000000000,-0.0200000000000000,0.02714285714285713500000000000000,-0.01571428571428571200000000000000,0.0007142857142857159100000000000000,0.01857142857142857200000000000000,-0.01000000000000000200000000000000,-0.01000000000000000200000000000000,0.007142857142857138300000000000000,-0.002857142857142856700000000000000,-0.00928571428571428600000000000000,0.004999999999999997500000000000000,0.01571428571428570800000000000000,0,-0.02642857142857142600000000000000,-0.01142857142857142700000000000000,0.001428571428571431800000000000000,-0.01214285714285714300000000000000,-0.00928571428571428600000000000000,-0.0007142857142857159100000000000000,-0.02500000000000000100000000000000,0.02071428571428571300000000000000,-0.0257142857142857100000000000000,-0.0321428571428571400000000000000,0.02000000000000000400000000000000,0.02071428571428571300000000000000,0.01857142857142857200000000000000,0.03285714285714284900000000000000,0.01857142857142857200000000000000,0.01857142857142857200000000000000,-0.02642857142857142600000000000000,0.005714285714285713400000000000000,0.007142857142857138300000000000000,-0.02999999999999999900000000000000,0.008571428571428570100000000000000,0.0007142857142857159100000000000000,-0.01785714285714285600000000000000,0.02714285714285713500000000000000,0.02714285714285713500000000000000,0.02642857142857142600000000000000,0.02785714285714285800000000000000,-0.003571428571428572600000000000000,0.02857142857142856700000000000000,-0.02999999999999999900000000000000,-0.02071428571428571300000000000000,0.007857142857142854200000000000000,0.01928571428571428800000000000000,0.01785714285714285600000000000000,-0.001428571428571431800000000000000,0.004999999999999997500000000000000,0.03285714285714284900000000000000,-0.01642857142857142800000000000000,-0.0200000000000000,-0.0321428571428571400000000000000,-0.01499999999999999900000000000000,0.02857142857142856700000000000000,-0.008571428571428570100000000000000,0.001428571428571431800000000000000,-0.02785714285714285800000000000000,0.02857142857142856700000000000000,0.003571428571428572600000000000000,-0.002857142857142856700000000000000,-0.01785714285714285600000000000000,-0.01071428571428571400000000000000,0.01285714285714285900000000000000,0.0007142857142857159100000000000000,-0.007142857142857141800000000000000,-0.02928571428571428300000000000000,-0.01928571428571428500000000000000,-0.0200000000000000,0.007142857142857138300000000000000,0.01928571428571428800000000000000,0.01214285714285714300000000000000,0.01642857142857142400000000000000,-0.006428571428571429300000000000000,0.01214285714285714300000000000000,0.03285714285714284900000000000000,0.006428571428571429300000000000000,0.02071428571428571300000000000000,0.003571428571428572600000000000000,-0.01428571428571428700000000000000,-0.01285714285714285500000000000000,-0.01142857142857142700000000000000,0.01000000000000000200000000000000,0.01857142857142857200000000000000,0.02714285714285713500000000000000,0.001428571428571431800000000000000,0.0321428571428571400000000000000,0.01000000000000000200000000000000,0.02071428571428571300000000000000,0.03500000000000000300000000000000,-0.007142857142857141800000000000000,-0.001428571428571431800000000000000,0.02285714285714285400000000000000,-0.03285714285714285600000000000000,0.0007142857142857159100000000000000,0.0235714285714285700000000000000,0.007857142857142854200000000000000,-0.02714285714285714200000000000000,-0.01928571428571428500000000000000,0.01285714285714285900000000000000,-0.01214285714285714300000000000000,0.02428571428571428500000000000000,-0.03071428571428571100000000000000,-0.003571428571428572600000000000000,0.02999999999999999900000000000000,0.03571428571428571200000000000000,-0.01357142857142857100000000000000,-0.007142857142857141800000000000000,0.01928571428571428800000000000000,-0.02142857142857142900000000000000,0.01571428571428570800000000000000,0.0007142857142857159100000000000000,0.007142857142857138300000000000000,-0.03071428571428571100000000000000,-0.002142857142857147700000000000000,0.01142857142857142700000000000000,-0.01285714285714285500000000000000,0.01499999999999999900000000000000,-0.02428571428571428500000000000000,-0.01499999999999999900000000000000,0.007142857142857138300000000000000,0.03571428571428571200000000000000,-0.01571428571428571200000000000000,-0.02857142857142857100000000000000,-0.0257142857142857100000000000000,0.001428571428571431800000000000000,-0.02142857142857142900000000000000,0.007142857142857138300000000000000,0.03285714285714284900000000000000,0.03571428571428571200000000000000,0.0257142857142857100000000000000,-0.006428571428571429300000000000000,0.01357142857142856800000000000000,-0.00928571428571428600000000000000,0.01071428571428571800000000000000,-0.02142857142857142900000000000000,0.0171428571428571400000000000000,0.01928571428571428800000000000000,0.03285714285714284900000000000000,-0.02285714285714285700000000000000,0.01642857142857142400000000000000,0.0171428571428571400000000000000,0.0235714285714285700000000000000,0.01428571428571428400000000000000,0.02714285714285713500000000000000,-0.01071428571428571400000000000000,0.01642857142857142400000000000000,0.03571428571428571200000000000000,0.0342857142857142800000000000000,0.005714285714285713400000000000000,-0.01214285714285714300000000000000,0.001428571428571431800000000000000,-0.007857142857142854200000000000000,-0.03142857142857143100000000000000,-0.01285714285714285500000000000000,0.002857142857142856700000000000000,-0.01142857142857142700000000000000,-0.01928571428571428500000000000000,0.01499999999999999900000000000000,0.00928571428571428600000000000000,0.02999999999999999900000000000000,0.005714285714285713400000000000000,0.03071428571428572200000000000000,-0.02642857142857142600000000000000,0.0171428571428571400000000000000,0.02214285714285714500000000000000,-0.0171428571428571400000000000000,0.03285714285714284900000000000000,-0.03499999999999999600000000000000,-0.002857142857142856700000000000000,0.0342857142857142800000000000000,0.002857142857142856700000000000000,-0.0321428571428571400000000000000,-0.03071428571428571100000000000000,0.01000000000000000200000000000000,0.02714285714285713500000000000000,-0.03285714285714285600000000000000,-0.03142857142857143100000000000000,-0.007857142857142854200000000000000,-0.003571428571428572600000000000000,-0.003571428571428572600000000000000,0.0342857142857142800000000000000,-0.002857142857142856700000000000000,-0.02214285714285714100000000000000,0.01642857142857142400000000000000,-0.006428571428571429300000000000000,-0.006428571428571429300000000000000,0.02071428571428571300000000000000,-0.01857142857142857200000000000000,-0.02214285714285714100000000000000,0.003571428571428572600000000000000,0.01142857142857142700000000000000,0.0292857142857142900000000000000,-0.02999999999999999900000000000000,-0.02785714285714285800000000000000,-0.02642857142857142600000000000000,0.02499999999999999400000000000000,-0.01785714285714285600000000000000,-0.02428571428571428500000000000000,-0.02428571428571428500000000000000,-0.01071428571428571400000000000000,0.02214285714285714500000000000000,-0.03285714285714285600000000000000,0.0321428571428571400000000000000,0.002142857142857147700000000000000,-0.01785714285714285600000000000000,-0.03142857142857143100000000000000,-0.003571428571428572600000000000000,-0.003571428571428572600000000000000,0.01571428571428570800000000000000,-0.02785714285714285800000000000000,-0.0171428571428571400000000000000,0.02857142857142856700000000000000,0.004999999999999997500000000000000,-0.02857142857142857100000000000000,-0.01428571428571428700000000000000,-0.01499999999999999900000000000000,-0.01428571428571428700000000000000,0.01785714285714285600000000000000,-0.0257142857142857100000000000000,-0.01142857142857142700000000000000,0.03142857142857141700000000000000,-0.002857142857142856700000000000000,-0.00500000000000000100000000000000,0.02642857142857142600000000000000,-0.01285714285714285500000000000000,-0.007857142857142854200000000000000,-0.01571428571428571200000000000000,-0.00928571428571428600000000000000,0.01142857142857142700000000000000,-0.0007142857142857159100000000000000,-0.01499999999999999900000000000000,0.02428571428571428500000000000000,-0.02071428571428571300000000000000,-0.01928571428571428500000000000000,-0.002857142857142856700000000000000,-0.01642857142857142800000000000000,-0.0200000000000000,0.0321428571428571400000000000000,-0.01857142857142857200000000000000,0.02857142857142856700000000000000,0.002857142857142856700000000000000,0.004999999999999997500000000000000,0.02857142857142856700000000000000,-0.02500000000000000100000000000000,0.02714285714285713500000000000000,0.0342857142857142800000000000000,0.002857142857142856700000000000000,0.02428571428571428500000000000000,0.006428571428571429300000000000000,-0.0171428571428571400000000000000,-0.03071428571428571100000000000000,-0.03285714285714285600000000000000,-0.02785714285714285800000000000000,-0.01142857142857142700000000000000,0.02285714285714285400000000000000,-0.02500000000000000100000000000000,-0.02428571428571428500000000000000,0,-0.03285714285714285600000000000000,-0.0200000000000000,0.0171428571428571400000000000000,-0.0171428571428571400000000000000,0.03142857142857141700000000000000,-0.01428571428571428700000000000000,-0.00928571428571428600000000000000,-0.01357142857142857100000000000000,-0.0342857142857142800000000000000,0.01357142857142856800000000000000,-0.006428571428571429300000000000000,-0.01499999999999999900000000000000,-0.0257142857142857100000000000000,-0.01285714285714285500000000000000,0.0342857142857142800000000000000,0.003571428571428572600000000000000,-0.005714285714285713400000000000000,0.03142857142857141700000000000000,-0.01857142857142857200000000000000,-0.008571428571428570100000000000000,0.01499999999999999900000000000000,0.03285714285714284900000000000000,-0.0235714285714285700000000000000,-0.02071428571428571300000000000000,-0.01285714285714285500000000000000,-0.01000000000000000200000000000000,0.002142857142857147700000000000000,-0.01571428571428571200000000000000,-0.007142857142857141800000000000000,0.004285714285714288500000000000000,0.02071428571428571300000000000000,-0.02142857142857142900000000000000,-0.0342857142857142800000000000000,0.01071428571428571800000000000000,0.01785714285714285600000000000000,0.01214285714285714300000000000000,0.01857142857142857200000000000000,-0.03357142857142857200000000000000,-0.01071428571428571400000000000000,-0.02999999999999999900000000000000,-0.02428571428571428500000000000000,0.02000000000000000400000000000000,-0.0342857142857142800000000000000,0.007857142857142854200000000000000,-0.02857142857142857100000000000000,-0.0321428571428571400000000000000,-0.01785714285714285600000000000000,-0.02785714285714285800000000000000,-0.02642857142857142600000000000000,0.03500000000000000300000000000000,-0.02714285714285714200000000000000,0.0171428571428571400000000000000,0.01000000000000000200000000000000,0.01214285714285714300000000000000,-0.01785714285714285600000000000000,0.008571428571428570100000000000000,0.004285714285714288500000000000000,0.03285714285714284900000000000000,0.002857142857142856700000000000000,-0.01571428571428571200000000000000,0.02499999999999999400000000000000,-0.03499999999999999600000000000000,-0.01214285714285714300000000000000,0.03071428571428572200000000000000,-0.02142857142857142900000000000000,-0.0007142857142857159100000000000000,0.01785714285714285600000000000000,0.01857142857142857200000000000000,0.0235714285714285700000000000000,-0.02857142857142857100000000000000,-0.02285714285714285700000000000000,0.01428571428571428400000000000000,-0.01357142857142857100000000000000,0.0235714285714285700000000000000,0.02142857142857142900000000000000,0.01214285714285714300000000000000,-0.0007142857142857159100000000000000,0.006428571428571429300000000000000,0.02142857142857142900000000000000,-0.008571428571428570100000000000000,-0.01857142857142857200000000000000,0.02999999999999999900000000000000,-0.02500000000000000100000000000000,0.01642857142857142400000000000000,0.008571428571428570100000000000000,-0.003571428571428572600000000000000,-0.01214285714285714300000000000000,-0.02785714285714285800000000000000,0.01071428571428571800000000000000,-0.00500000000000000100000000000000,0.007857142857142854200000000000000,0,-0.01857142857142857200000000000000,0.002857142857142856700000000000000,0.008571428571428570100000000000000,-0.0007142857142857159100000000000000,-0.0342857142857142800000000000000,0.0257142857142857100000000000000,0.01000000000000000200000000000000,-0.001428571428571431800000000000000,0.005714285714285713400000000000000,0.01571428571428570800000000000000,0.0257142857142857100000000000000,-0.00928571428571428600000000000000,-0.001428571428571431800000000000000,-0.007857142857142854200000000000000,0.03357142857142857200000000000000,-0.03071428571428571100000000000000,-0.02857142857142857100000000000000,-0.02285714285714285700000000000000,-0.02642857142857142600000000000000,-0.02142857142857142900000000000000,0.0235714285714285700000000000000,0.01214285714285714300000000000000,0.0235714285714285700000000000000,0.004999999999999997500000000000000,0.01000000000000000200000000000000,-0.02428571428571428500000000000000,0.00928571428571428600000000000000,0.01928571428571428800000000000000,-0.007142857142857141800000000000000,0.01142857142857142700000000000000,-0.01142857142857142700000000000000,-0.01428571428571428700000000000000,-0.00928571428571428600000000000000,0.01000000000000000200000000000000,-0.002857142857142856700000000000000,-0.007857142857142854200000000000000,0.111540648152951200000000000000,-0.000807207470777698400000000000000,0.01011788619963126600000000000000,-0.04513678695703127200000000000000,-0.01595685737050988800000000000000,0.05036473609568260800000000000000,-0.03534355008230746100000000000000,-0.03254809902430583900000000000000,0.01148402680253029500000000000000,0.07813269222189277200000000000000,-0.05804115113309800400000000000000,-0.01726503323355476500000000000000,-0.1573684328999108200000000000000,-0.06803691076628683200000000000000,-0.05168862638031513500000000000000,0.003868321764074018100000000000000,-0.08983231864945212500000000000000,0.1099516500076387600000000000000,0.1580701912315090100000000000000,-0.0791623155148566400000000000000,0.02181526037877582600000000000000,0.05308442239684568700000000000000,-0.0539322568125246500000000000000,0.09299812305878467400000000000000,0.05664285281700003800000000000000,0.01120361001362327900000000000000,0.07777178712069823800000000000000,-0.0892021819373046700000000000000,0.05425626946803366300000000000000,0.1390409037750600400000000000000,-0.1196149163513032200000000000000,-0.04458886072075125100000000000000,-0.1569844150842762700000000000000,-0.06101389390355870700000000000000,-0.03194074359988171400000000000000,-0.06391879429700687800000000000000,-0.2669522525757616100000000000000,0.01325277928728381400000000000000,0.2296534265458875500000000000000,-0.1730111603594619300000000000000,0.02650711552230352500000000000000,0.09430172823524957100000000000000,0.03716640354788879700000000000000,0.08254985472601708600000000000000,0.1481937747837536500000000000000,0.01294620753489313400000000000000,0.122580382843531300000000000000,-0.3254892207787462600000000000000,-0.0123241039265484500000000000000,0.1556713269905284600000000000000,0.02624471610324546200000000000000,-0.07649824316743317200000000000000,-0.03827015337523118800000000000000,0.0642643408625201700000000000000,0.01837280125898857500000000000000,-0.1334096195140241400000000000000,-0.2756017112188249900000000000000,-0.02654211105523594400000000000000,0.1881420012478092800000000000000,-0.1942196452581981500000000000000,-0.05256115137834536200000000000000,0.1427169600842977100000000000000,0.01306840136731715600000000000000,0.1403694282648070300000000000000,0.1914281961222477100000000000000,-0.01778427776236895400000000000000,0.1339728104107819600000000000000,-0.3911379570132844100000000000000,-0.05942848545315553700000000000000,0.1207067088310035100000000000000,0.1198578447993903600000000000000,0.00823190469849036100000000000000,0.09529426742706095800000000000000,0.07545040457575968900000000000000,0.02598168230422962700000000000000,-0.1449858845866853200000000000000,-0.2281777599901230700000000000000,-0.08395056821245901200000000000000,0.06896990007729901500000000000000,-0.2417930451299031600000000000000,-0.2394583693913589500000000000000,0.02951474653211133900000000000000,-0.09040036631662634600000000000000,0.2758884978922929200000000000000,0.2112593425613947500000000000000,-0.1106525639625639400000000000000,0.2018257034425197700000000000000,-0.2896739138550435400000000000000,-0.06011825643810440200000000000000,0.1230115411112549400000000000000,0.1814728179738379400000000000000,0.1303588170979004500000000000000,0.1682964818708330700000000000000,-0.06951978400960476300000000000000,0.1565251074768395100000000000000,-0.21845530348145800000000000000,-0.3091272046509596100000000000000,0.02234195636130922900000000000000,-0.05401888664436157300000000000000,-0.3094579509247152900000000000000,-0.1860617493804017100000000000000,-0.0611597042479984300000000000000,0.003087126944669548200000000000000,0.378669135311326400000000000000,0.2388897360153724700000000000000,-0.07569278055838295200000000000000,0.2370177482147578200000000000000,-0.09005368658638930600000000000000,-0.0594871555347027400000000000000,0.02345082977008845100000000000000,0.1031714469392503600000000000000,0.1910356309777193600000000000000,0.1072996344465106100000000000000,-0.02119511091244269400000000000000,0.1789333374358248700000000000000,-0.1945908902363138200000000000000,-0.3554752188372721200000000000000,0.2913697901681436300000000000000,-0.02947233978448448800000000000000,-0.3994112964675553500000000000000,-0.1856338388612369100000000000000,-0.06346751642387482600000000000000,-0.03541956552071862100000000000000,0.3830453717779674900000000000000,0.3461507378142746900000000000000,-0.05090132429732881900000000000000,0.1312186271805463600000000000000,-0.2521740189459533200000000000000,-0.1471795028590130400000000000000,0.007166224680480942100000000000000,0.1520339980061906900000000000000,0.158730850878858800000000000000,0.2281363445613956700000000000000,0.09277742583243221700000000000000,0.1545011821255511700000000000000,-0.1816763406583145900000000000000,-0.3085484182930126100000000000000,0.171522674220881300000000000000,-0.1332493753123050700000000000000,-0.3114079367791259300000000000000,-0.07396879508152073800000000000000,0.1026009940642258800000000000000,0.007958054730746209200000000000000,0.3375124157491429800000000000000,0.5204330779047620100000000000000,0.09913260374927297700000000000000,0.04016986095675967300000000000000,-0.4730909364415567500000000000000,-0.1874704424394061900000000000000,-0.01088387056555416100000000000000,0.1209432896932190600000000000000,0.1818858454408955300000000000000,0.1876013711235302900000000000000,0.4588392227454915500000000000000,-0.04307061620698653800000000000000,-0.2277582741806690700000000000000,-0.2474103046232477800000000000000,-0.009613316832077766300000000000000,-0.1436410193619971600000000000000,-0.3043327170047452300000000000000,-0.017465341506459200000000000000,0.03493573395202334600000000000000,0.04818967847893000600000000000000,0.1498206519687908800000000000000,0.2685835845015526700000000000000,0.1274990477572235100000000000000,-0.003673597817211658800000000000000,-0.3103901251562700700000000000000,-0.1901903655758913600000000000000,0.0936290189871119700000000000000,0.1863521708160469100000000000000,-0.1525396439794191900000000000000,0.05221020090902932200000000000000,0.1766819053322301900000000000000,0.1806513402089694200000000000000,-0.2276942858344753500000000000000,0.004547107339716324400000000000000,-0.04633678851542055700000000000000,0.002744476643520473500000000000000,-0.09455294671458255900000000000000,-0.00789097720248882300000000000000,-0.03937564804965640300000000000000,0.1675092668854490900000000000000,0.2282981513067943400000000000000,0.1281218906275582200000000000000,0.08868148061954128600000000000000,-0.03001588861134871600000000000000,-0.1823375459078802900000000000000,-0.1002523344692381300000000000000,0.02827281103374852700000000000000,0.1486089665309056900000000000000,-0.1019512692558049700000000000000,-0.1717538171359717900000000000000,0.005420657089185908400000000000000,0.1895306597504412800000000000000,-0.3340395356069114100000000000000,-0.1823188132256496600000000000000,0.1964159540102262100000000000000,0.2329537851337553900000000000000,-0.2313233117679919500000000000000,0.02538542774338854700000000000000,0.09253261071550210300000000000000,0.07910048826070262300000000000000,0.3025577223497352700000000000000,0.1887396046731064100000000000000,0.05319631618303093800000000000000,-0.1762354612410926800000000000000,-0.2382955330219016800000000000000,-0.08551727906740035100000000000000,0.200205476489094400000000000000,0.1422377139922800800000000000000,0.09503186207446576200000000000000,-0.1450013094406996700000000000000,-0.01575182101167025100000000000000,0.2829987829774599500000000000000,-0.2747266565054615800000000000000,-0.1870707504882399600000000000000,0.252918748092319900000000000000,0.2142433420493719800000000000000,-0.4157968001484678200000000000000,-0.04681946716175327400000000000000,-0.1783560175888852200000000000000,0.1382832711892273400000000000000,0.5149036185093446300000000000000,0.1562462030513586400000000000000,-0.2580986443777383800000000000000,0.1104221336772666900000000000000,-0.2315197864695275600000000000000,-0.0009863606754599452800000000000000,-0.04720365344701808700000000000000,0.05063356082966134100000000000000,0.1021324113090024800000000000000,0.003070027274869782700000000000000,0.195916526457651700000000000000,0.0629623686330822300000000000000,-0.34964360474264300000000000000,-0.06334975407831934500000000000000,0.0942103340512426700000000000000,0.03770336684340698500000000000000,-0.2781613514214684700000000000000,-0.1968477441893734500000000000000,-0.2772615270081162900000000000000,0.0720409715222673500000000000000,0.8493642733665381900000000000000,0.4380398900534085400000000000000,-0.2388547268061828300000000000000,0.2400904204460819800000000000000,-0.404354180893807200000000000000,-0.06201712540333350500000000000000,-0.1117798003906355500000000000000,0.1359594068315682100000000000000,0.1942520233963490900000000000000,-0.06169336359387090500000000000000,0.1845824648026481400000000000000,0.1574021999565994900000000000000,-0.629148197407137900000000000000,-0.08713709195403554500000000000000,0.02619066598161582500000000000000,0.003237105576172204200000000000000,-0.5119560759604385700000000000000,-0.05354994218027589500000000000000,-0.07835994028636031300000000000000,-0.2898959309609406300000000000000,0.1769912854186822500000000000000,-0.1894116576846986700000000000000,0.02196576265523162200000000000000,-0.1225790171377906400000000000000,0.006776939409504302900000000000000,-0.2565409060357504700000000000000,0.3694342459436192300000000000000,0.1801911202807910700000000000000,0.06770103893080731100000000000000,-0.1774985857958146800000000000000,-0.4876120233311159200000000000000,0.3524970501479615100000000000000,0.03536683735825346700000000000000,0.09594410454576471300000000000000,-0.05766323960988314200000000000000,0.06011051818843542200000000000000,-0.1617260370447035100000000000000,-0.03999044261661338600000000000000,-0.1678392697808176500000000000000,-0.1065005679810289800000000000000,-0.2459759548782403700000000000000,-0.316793550327717500000000000000,-0.02892642425779857700000000000000,-0.01883517973419409100000000000000,-0.05242806743356871700000000000000,-0.1765105819286317800000000000000,0.5598874272237651700000000000000,0.1685654527769384900000000000000,-0.2257335939917946600000000000000,-0.1570980158048506100000000000000,-0.5091062407055696500000000000000,0.3344066590506656300000000000000,0.2386115340166113100000000000000,-0.07217534562658448100000000000000,0.1488473266877259600000000000000,0.1886080947629568700000000000000,0.09269721116673335100000000000000,-0.1850421754183443100000000000000,0.1687807342297978600000000000000,0.07775069521750935200000000000000,-0.2909291784914292400000000000000,-0.3723020736646866500000000000000,0.1228681761226322300000000000000,0.1902417529386686800000000000000,-0.2165595134115716200000000000000,-0.08836684391840318700000000000000,0.3024258625558244300000000000000,0.3365152351549956500000000000000,-0.4201867307083871400000000000000,-0.3014705642467104800000000000000,-0.2600098921066078500000000000000,0.3126183597780615200000000000000,0.00465841452607909400000000000000,-0.1682111476897118200000000000000,0.3661971584805472400000000000000,0.3566096912878766200000000000000,0.1033649187989169500000000000000,-0.08521592124926050100000000000000,0.1900258183869427700000000000000,0.1520737458241062400000000000000,-0.1541180568388027800000000000000,-0.225098635394762300000000000000,0.2459932527959111100000000000000,0.004737640777549068100000000000000,-0.2167449824917450100000000000000,0.01444708112178445600000000000000,0.1267363317275453100000000000000,0.2787404170011804600000000000000,-0.2348326452871386800000000000000,-0.5598305430790306800000000000000,-0.1726089540481682800000000000000,0.2266674717011510400000000000000,-0.2231495477539780200000000000000,-0.002596356490780159300000000000000,0.4841440116179417400000000000000,0.518326959440725600000000000000,-0.1016269520225637400000000000000,-0.2088111160458598600000000000000,0.2001558319460313400000000000000,0.210939817679118100000000000000,-0.286792219076368200000000000000,-0.3244477357463500000000000000,0.02340121943602762500000000000000,0.4244628082832542800000000000000,-0.3144152163566487100000000000000,0.03696470818630286800000000000000,0.3660191119761316800000000000000,0.4344996119108496300000000000000,-0.4427147633543533400000000000000,-0.3286881592566258100000000000000,-0.05015813541630773800000000000000,0.2707424282363569700000000000000,0.1118851906125827600000000000000,-0.1250564078604150500000000000000,0.3202835102622270100000000000000,0.3009894121149960200000000000000,0.1096289022296506600000000000000,-0.1958933179414720200000000000000,0.4868414243774657500000000000000,-0.4677996601729476600000000000000,-0.9883404385397942500000000000000,-0.5460612146204649700000000000000,0.1996516996172911500000000000000,0.1883564031432895200000000000000,0.2523933355904654500000000000000,0.02692878305701013400000000000000,0.4831641905545028300000000000000,-0.03862001587948184200000000000000,-0.3995881147546019900000000000000,-0.08210698353759177100000000000000,-0.2532460744249008200000000000000,-0.01549153436667809400000000000000,0.8248303703659989300000000000000,-0.1176790875543969200000000000000,-0.2012491299705825600000000000000,-0.01811692144406108100000000000000,0.6574975700531852100000000000000,-0.4272145158397426800000000000000,0.1119563088908992100000000000000,-0.8694207042208685900000000000000,-0.497876707315407400000000000000,-0.001903998865098001800000000000000,0.2610488987838953100000000000000,-0.4244788202693348100000000000000,0.5672921735972704700000000000000,0.009630321772284200800000000000000,-0.332806522824784400000000000000,-0.1901639467755540400000000000000,0.2748695006163821600000000000000,-0.04413897243546931200000000000000,-0.4395540835106082100000000000000,0.04098495229678633700000000000000,0.428986749032901400000000000000,0.1399912865681792700000000000000,-0.1348065863558152700000000000000,-0.4110489217126692100000000000000,0.2667953193823013300000000000000,-0.001428571428571431800000000000000,0.03071428571428572200000000000000,-0.003571428571428572600000000000000,-0.01857142857142857200000000000000,-0.01499999999999999900000000000000,-0.01142857142857142700000000000000,0.00928571428571428600000000000000,-0.01000000000000000200000000000000,0.03357142857142857200000000000000,-0.01571428571428571200000000000000,0.008571428571428570100000000000000,-0.02285714285714285700000000000000,0.01000000000000000200000000000000,-0.03071428571428571100000000000000,-0.02642857142857142600000000000000,-0.0257142857142857100000000000000,0.007857142857142854200000000000000,0.0342857142857142800000000000000,-0.02142857142857142900000000000000,0.03571428571428571200000000000000,-0.01357142857142857100000000000000,0.01285714285714285900000000000000,0,0.0342857142857142800000000000000,-0.001428571428571431800000000000000,0.03571428571428571200000000000000,0.006428571428571429300000000000000,-0.02928571428571428300000000000000,-0.002142857142857147700000000000000,0.0235714285714285700000000000000,-0.001428571428571431800000000000000,-0.01285714285714285500000000000000,-0.03285714285714285600000000000000,0.02857142857142856700000000000000,0.01357142857142856800000000000000,0.002142857142857147700000000000000,-0.02214285714285714100000000000000,-0.002857142857142856700000000000000,-0.02500000000000000100000000000000,0.03357142857142857200000000000000,-0.02642857142857142600000000000000,0.02785714285714285800000000000000,-0.001428571428571431800000000000000,-0.03357142857142857200000000000000,0.0342857142857142800000000000000,0.02499999999999999400000000000000,-0.03285714285714285600000000000000,-0.01285714285714285500000000000000,0.01571428571428570800000000000000,0.0235714285714285700000000000000,-0.0342857142857142800000000000000,0.01642857142857142400000000000000,0.005714285714285713400000000000000,-0.02714285714285714200000000000000,0.03071428571428572200000000000000,0.01000000000000000200000000000000,0.02142857142857142900000000000000,0.01428571428571428400000000000000,0.00928571428571428600000000000000,0.01857142857142857200000000000000,-0.0257142857142857100000000000000,0.0257142857142857100000000000000,-0.01928571428571428500000000000000,0.02999999999999999900000000000000,-0.02714285714285714200000000000000,0.01642857142857142400000000000000,0.03142857142857141700000000000000,0.01071428571428571800000000000000,0.005714285714285713400000000000000,-0.01214285714285714300000000000000,-0.01214285714285714300000000000000,-0.02785714285714285800000000000000,0.0292857142857142900000000000000,0.01928571428571428800000000000000,0.02428571428571428500000000000000,0.01642857142857142400000000000000,0.0342857142857142800000000000000,0.0007142857142857159100000000000000,0.0342857142857142800000000000000,-0.02142857142857142900000000000000,-0.02285714285714285700000000000000,-0.006428571428571429300000000000000,0.02071428571428571300000000000000,-0.02214285714285714100000000000000,0.02857142857142856700000000000000,-0.01142857142857142700000000000000,-0.002857142857142856700000000000000,0.03571428571428571200000000000000,-0.0257142857142857100000000000000,-0.01928571428571428500000000000000,0.01928571428571428800000000000000,-0.01285714285714285500000000000000,-0.01214285714285714300000000000000,-0.01142857142857142700000000000000,-0.0171428571428571400000000000000,-0.02214285714285714100000000000000,0.03571428571428571200000000000000,-0.0007142857142857159100000000000000,-0.02500000000000000100000000000000,-0.01428571428571428700000000000000,-0.01499999999999999900000000000000,0.03357142857142857200000000000000,0.0007142857142857159100000000000000,0.0342857142857142800000000000000,-0.01642857142857142800000000000000,0.03357142857142857200000000000000,0.02285714285714285400000000000000,-0.02285714285714285700000000000000,0.03357142857142857200000000000000,-0.008571428571428570100000000000000,0.02642857142857142600000000000000,0.02142857142857142900000000000000,0.03071428571428572200000000000000,-0.01499999999999999900000000000000,-0.0321428571428571400000000000000,0.03571428571428571200000000000000,0.03500000000000000300000000000000,0.0235714285714285700000000000000,-0.01785714285714285600000000000000,0.02142857142857142900000000000000,-0.0171428571428571400000000000000,0.0321428571428571400000000000000,0.002142857142857147700000000000000,-0.00500000000000000100000000000000,0.0171428571428571400000000000000,-0.02642857142857142600000000000000,0.02642857142857142600000000000000,0.02214285714285714500000000000000,0.0235714285714285700000000000000,-0.0200000000000000,0.01785714285714285600000000000000,-0.01142857142857142700000000000000,-0.02071428571428571300000000000000,0.03285714285714284900000000000000,0.01499999999999999900000000000000,0,-0.007142857142857141800000000000000,-0.002142857142857147700000000000000,-0.008571428571428570100000000000000,-0.02999999999999999900000000000000,0.01142857142857142700000000000000,0.002142857142857147700000000000000,0.01499999999999999900000000000000,0.02285714285714285400000000000000,-0.03071428571428571100000000000000,0.01142857142857142700000000000000,0.0007142857142857159100000000000000,0.01071428571428571800000000000000,0.007142857142857138300000000000000,0,-0.02714285714285714200000000000000,-0.003571428571428572600000000000000,-0.02785714285714285800000000000000,0.0235714285714285700000000000000,0.0321428571428571400000000000000,-0.01928571428571428500000000000000,-0.02928571428571428300000000000000,0.02785714285714285800000000000000,-0.01000000000000000200000000000000,-0.0235714285714285700000000000000,0.1345776632400184900000000000000,0.01681625773533182100000000000000,0.1387653099365255300000000000000,-0.05761947430401322100000000000000,-0.02394950496533727500000000000000,0.01900518640703264100000000000000,0.03897625368591562500000000000000,-0.2318435870717371300000000000000,-0.08558421923946604700000000000000,0.2008243796337628500000000000000,0.01210827774333392500000000000000,-0.1369704876591396600000000000000,-0.03982377749671937200000000000000,0.0429748525676037700000000000000,-0.1006109596499291900000000000000,0.05602388567968016200000000000000,-0.211788201591214200000000000000,0.08180088459842507800000000000000,0.1467223628750853900000000000000,-0.02587252752271008300000000000000,0.0604370624799895200000000000000,0.09823749388990665700000000000000,-0.05699767139834709100000000000000,0.02945912529911053400000000000000,0.1021931953432900200000000000000,0.04263400421087351600000000000000,0.1179226289013300400000000000000,-0.2894201933910993100000000000000,0.03439803991852027900000000000000,0.1919895662524294400000000000000,-0.05470728566576558300000000000000,-0.07874510631834000200000000000000,-0.04418735116818161400000000000000,0.04646752663356815800000000000000,-0.04788745649355288800000000000000,-0.01138883159370029100000000000000,-0.3552141780506323200000000000000,0.005280178249431940300000000000000,0.2055695858654800200000000000000,-0.1450525851393386400000000000000,0.04843794692346169200000000000000,0.09890841035494764300000000000000,-0.04983518734263876100000000000000,0.161943042863986500000000000000,0.1755379639886510400000000000000,0.04940479910973375600000000000000,0.1687491959561970300000000000000,-0.3030881635863871300000000000000,-0.001810278647666229300000000000000,0.1695577560575499700000000000000,0.01617665945054430600000000000000,-0.006260078157483158100000000000000,-0.06536148256787244200000000000000,0.09025530721628514900000000000000,0.0223044375513256100000000000000,-0.05954419726810745300000000000000,-0.3500579747808561500000000000000,0.0748025054788175600000000000000,0.2039569714932418800000000000000,-0.1938738938849074700000000000000,-0.04397369109147785500000000000000,0.03811687047430001300000000000000,0.04710147797284731900000000000000,0.1901292194408649200000000000000,0.152447221929558400000000000000,0.01537114322100602600000000000000,0.1396140338665772300000000000000,-0.1971639240515390700000000000000,-0.002490275348615020200000000000000,0.02507158392166249400000000000000,0.1177559895665144700000000000000,0.02151430793983285700000000000000,0.08875115248540205200000000000000,0.1077209078182671700000000000000,0.05059475500445190200000000000000,-0.1652940666839716200000000000000,-0.263686664761330400000000000000,0.2164488008566663500000000000000,0.04117341577605933300000000000000,-0.2490753260670546500000000000000,-0.1933727117097550400000000000000,-0.08747560032453313700000000000000,-0.0226965032650470400000000000000,0.3290756664415462300000000000000,0.2272838390060495400000000000000,-0.03890387994200826500000000000000,0.202755665867107500000000000000,-0.09652871780774274800000000000000,-0.08582890643591083200000000000000,0.0301288958793916700000000000000,0.06400261259594856900000000000000,0.1083617569285024900000000000000,0.1541553411378876700000000000000,-0.05462395592799473800000000000000,0.2075343898151285600000000000000,-0.174534108517634400000000000000,-0.2830478109405378300000000000000,0.2319330828258646100000000000000,-0.04563002795161696200000000000000,-0.2771587757787319400000000000000,0.02675477724741904400000000000000,-0.01834985526471048100000000000000,0.09825930172990493500000000000000,0.3314514555223236300000000000000,0.2831555769511154300000000000000,0.0803520329334833500000000000000,0.08390751587873117300000000000000,-0.1247251184219623400000000000000,-0.08310114557002956600000000000000,-0.03347932835860904800000000000000,0.07948700421397031400000000000000,-0.0005902805851656691700000000000000,0.04431682157960590400000000000000,0.05701704416206743200000000000000,0.04808978102944651300000000000000,-0.2086957681741679600000000000000,-0.1376980206417220700000000000000,0.09832881754826230900000000000000,0.01244809872223498100000000000000,-0.2424721537066399900000000000000,-0.05243967132111419800000000000000,0.09979624942183640300000000000000,0.0244768931490354500000000000000,0.05181291027199709500000000000000,0.2633193481602319500000000000000,0.130441088307467200000000000000,-0.0537112096064511700000000000000,-0.3223721850987099100000000000000,-0.2038195017555365600000000000000,0.09576401499001899200000000000000,0.1770669964176838100000000000000,-0.1201718040230645200000000000000,0.0466376460511434900000000000000,0.103203808274482400000000000000,0.1430067318786292500000000000000,-0.1551769587918154200000000000000,-0.0307749752125840400000000000000,0.04029059757165114700000000000000,-0.03368736659252106300000000000000,-0.1128669847880520200000000000000,-0.02864652759473343100000000000000,0.08005130699272576500000000000000,0.1433245247375086700000000000000,0.02826779412475649200000000000000,0.1099435321980617200000000000000,0.02944475321159259800000000000000,-0.1659024085770539600000000000000,-0.3270131326409270200000000000000,-0.1515303229557674300000000000000,0.02512863815247271700000000000000,0.2147853463554927900000000000000,0.01656620466627250700000000000000,0.004769753067389742900000000000000,0.1491335247385362200000000000000,0.04072870632889991100000000000000,-0.09309571692266220600000000000000,-0.1128003995086556700000000000000,0.1160403665035594800000000000000,-0.02039227030778570400000000000000,-0.1192389545731186600000000000000,0.0235176532941505300000000000000,0.01249993532935764700000000000000,0.2331891689197275200000000000000,0.1916705437961535600000000000000,0.1305534101927591200000000000000,-0.02802998953117188900000000000000,-0.1685864878769535200000000000000,-0.3931206031423675800000000000000,-0.1504193856568528900000000000000,-0.01592596079305819100000000000000,0.1879500342993790100000000000000,0.08092819120251341900000000000000,-0.07654971427920265200000000000000,0.165593044827797600000000000000,0.0411434167161652400000000000000,-0.192771158425460300000000000000,-0.1362039917109687800000000000000,0.2560034242266994200000000000000,0.03590921578731113400000000000000,-0.2066855084433921200000000000000,0.1817113614669588200000000000000,-0.141705770218496400000000000000,0.4059924425960896300000000000000,0.6593208479469753200000000000000,0.3703397897713453500000000000000,-0.04100394070315977600000000000000,-0.1870893930387007900000000000000,-0.484359541306575100000000000000,-0.1019469472346542100000000000000,-0.1493751642805497500000000000000,0.1113026749731754100000000000000,0.2760538683081240100000000000000,-0.05776235893536376500000000000000,0.4706711766150915600000000000000,-0.04749311922472845100000000000000,-0.3381094471052155700000000000000,-0.2886374931477443400000000000000,0.4894894764103210900000000000000,0.1685937452996490700000000000000,-0.5369089656456543800000000000000,-0.0512779659333765100000000000000,0.006540901837149115700000000000000,0.2761295539041903600000000000000,0.6888910978598137300000000000000,0.2900282543746874900000000000000,-0.2223094044977242900000000000000,0.09001140656170084100000000000000,-0.4936981103094794700000000000000,-0.05632682487970641600000000000000,-0.168218084667638800000000000000,0.2031307619431150800000000000000,0.421330918602360600000000000000,0.1398705163498354400000000000000,0.6079910205268541600000000000000,-0.03992129900542205200000000000000,-0.317869899405864300000000000000,-0.3028817588696031100000000000000,0.6023890662687501100000000000000,0.142765250758273200000000000000,-0.5392186930924780500000000000000,-0.3543669604897172800000000000000,0.1305962952926993400000000000000,0.009330521822166034500000000000000,0.5946057558733747200000000000000,0.1748619069409716200000000000000,-0.05427558485102417600000000000000,0.320563640933675400000000000000,-0.3205606945921872200000000000000,-0.09541959715106020100000000000000,-0.02985073698689385100000000000000,0.2359263959909738400000000000000,0.05507844433733397700000000000000,0.006491605120251219700000000000000,0.291411911959120200000000000000,0.2848674780961370500000000000000,-0.4187373323940002400000000000000,-0.08752559917759954200000000000000,0.3618563140933164800000000000000,0.1578053202676630900000000000000,-0.4161255043881384500000000000000,-0.3499284343513873700000000000000,0.03526827857770197700000000000000,0.1405764044958681700000000000000,0.1741717155780274400000000000000,0.1716797991806730800000000000000,0.09441449284451486300000000000000,0.18084872586694400000000000000,-0.3150481368224074500000000000000,-0.2391467010321169100000000000000,-0.05226545515859706800000000000000,0.3346721981751377100000000000000,-0.06224322302468979900000000000000,-0.07838044899810782400000000000000,0.2299066569802543100000000000000,0.2028480395073315500000000000000,-0.3821047600268380800000000000000,-0.1075882536918573900000000000000,0.4815729172616513600000000000000,0.1214469244965214700000000000000,-0.2625024389528610700000000000000,-0.1171265652426050400000000000000,-0.02832968141862434200000000000000,0.2054770444661968600000000000000,-0.103723727033593700000000000000,0.01485753574452599100000000000000,0.05461109367932628900000000000000,0.04462560178704608900000000000000,-0.2147783336763119100000000000000,-0.1205254694428932900000000000000,0.2302967924228137300000000000000,0.2636847491798224300000000000000,-0.1950719723974767600000000000000,-0.1378350558249343300000000000000,0.02764110914133746700000000000000,0.2128951033836528600000000000000,-0.2018255871346467100000000000000,0.01777275456054357500000000000000,0.2772350756219416100000000000000,0.1430727036498377100000000000000,0.01077528436234936500000000000000,0.004401828629744761500000000000000,-0.2281943316418432700000000000000,0.205596000350917600000000000000,0.2702811205523084600000000000000,0.0503476583563700200000000000000,-0.1830463821398064500000000000000,0.3003676972532510200000000000000,-0.08528125797921780300000000000000,0.04506788051846311700000000000000,0.2962014289456711400000000000000,0.01882481951327185500000000000000,-0.01069679259190140800000000000000,0.02489382389744429500000000000000,-0.07845247761518475700000000000000,0.1633214778751487500000000000000,-0.2139705068203844900000000000000,-0.2675474442703615900000000000000,0.2602509530140595900000000000000,0.04815953894824975100000000000000,-0.0509875199208068700000000000000,-0.07195868566193112900000000000000,-0.2219718527472283600000000000000,-0.1986875228756847500000000000000,0.156321112954151100000000000000,0.2495691579924516900000000000000,-0.07163171636027734800000000000000,0.05988714546979100700000000000000,-0.07435952430204038900000000000000,-0.1495544546426368900000000000000,0.169338975064484700000000000000,0.07742972890161350900000000000000,0.07419273209904829500000000000000,0.04458267215414047500000000000000,-0.2109619489307337500000000000000,0.1341993246897632300000000000000,-0.1041417451850899700000000000000,-0.007114588327444859200000000000000,0.04507206130267586700000000000000,-0.06236021368872494300000000000000,-0.08485740741223830900000000000000,-0.01168507228398700200000000000000,-0.3451108743776715200000000000000,-0.2667283713265985500000000000000,0.2905936828793714800000000000000,0.3650903205409613600000000000000,-0.03702105146932060200000000000000,0.2138920525828397200000000000000,0.3758147716411830400000000000000,0.1123895069959691500000000000000,-0.04207987708166405900000000000000,-0.3541260138328499700000000000000,0.1294448083754202400000000000000,-0.06691644992813031200000000000000,-0.1200524098083886600000000000000,-0.1000983137654193600000000000000,-0.04132032150432211900000000000000,-0.08487920878547507200000000000000,-0.1342979861851598400000000000000,-0.1224891821900925800000000000000,0.04378014146596553200000000000000,0.1034157831102594400000000000000,-0.2962394653676446200000000000000,-0.2379474491184832800000000000000,0.1395045471130204600000000000000,0.3311257921761437400000000000000,-0.1239670928362399500000000000000,0.1895568772963493700000000000000,0.2500150678314004300000000000000,-0.0388225468129076500000000000000,0.0759900985705263400000000000000,-0.2639047524322966600000000000000,0.171544743056411600000000000000,-0.001951777700402372400000000000000,-0.2942780114407189100000000000000,0.01749262048423440600000000000000,-0.01795357832218754200000000000000,-0.1482122187036427100000000000000,-0.3059883707179560400000000000000,-0.2470160288360184800000000000000,0.0207784276345988200000000000000,-0.04445969396957125800000000000000,-0.2920459056885514300000000000000,0.03271659414562676900000000000000,-0.1023692691896170300000000000000,-0.02130671395445836400000000000000,0.09123293565277522400000000000000,0.3156137658111085600000000000000,0.3475636292305429600000000000000,0.2750138369955406600000000000000,-0.302424690438055200000000000000,-0.4739975024592266200000000000000,-0.01512392777556791100000000000000,-0.008489990943518840500000000000000,-0.0573753379254554400000000000000,-0.2686937393469072100000000000000,0.05645854761105739700000000000000,-0.2026443525604398600000000000000,0.1310108073939748300000000000000,-0.02529424908062865800000000000000,0.06440252106913964300000000000000,0.06808362213150313800000000000000,-0.07317142762261549800000000000000,-0.2691221996425117200000000000000,0.1600104502976495100000000000000,-0.1353942603831048700000000000000,0.01549216402165671600000000000000,0.1676740270723864900000000000000,0.302830020240322300000000000000,0.1801097539483686400000000000000,0.3313417760981223800000000000000,-0.3600302949242593100000000000000,0.2437588537007894800000000000000,-0.1428545903031264400000000000000,-0.1732966945212367200000000000000,-0.1034962515635796500000000000000,0.12375579671449100000000000000,-0.4377430045902884200000000000000,0.0912259636931839900000000000000,0.1283039396744914700000000000000,-0.116895327435380500000000000000,-0.007857142857142854200000000000000,0.02499999999999999400000000000000,-0.007142857142857141800000000000000,0.0007142857142857159100000000000000,-0.03142857142857143100000000000000,-0.02928571428571428300000000000000,0.007857142857142854200000000000000,0.0342857142857142800000000000000,0.02857142857142856700000000000000,-0.01499999999999999900000000000000,-0.02642857142857142600000000000000,0.01071428571428571800000000000000,-0.02142857142857142900000000000000,0.01642857142857142400000000000000,0.01499999999999999900000000000000,0.01928571428571428800000000000000,-0.02142857142857142900000000000000,-0.003571428571428572600000000000000,0.02214285714285714500000000000000,-0.02071428571428571300000000000000,-0.0257142857142857100000000000000,-0.01785714285714285600000000000000,-0.00928571428571428600000000000000,0.001428571428571431800000000000000,-0.02642857142857142600000000000000,-0.007857142857142854200000000000000,-0.03357142857142857200000000000000,0.007857142857142854200000000000000,0.03571428571428571200000000000000,-0.0007142857142857159100000000000000,0,0.004285714285714288500000000000000,0.0292857142857142900000000000000,-0.02714285714285714200000000000000,0.008571428571428570100000000000000,0.01357142857142856800000000000000,-0.01071428571428571400000000000000,-0.02928571428571428300000000000000,0.003571428571428572600000000000000,-0.03357142857142857200000000000000,0.02214285714285714500000000000000,-0.01642857142857142800000000000000,0.02142857142857142900000000000000,0.01428571428571428400000000000000,0.01571428571428570800000000000000,0.004999999999999997500000000000000,-0.0342857142857142800000000000000,-0.02642857142857142600000000000000,-0.007142857142857141800000000000000,-0.0342857142857142800000000000000,-0.02857142857142857100000000000000,-0.01357142857142857100000000000000,-0.0171428571428571400000000000000,0.0342857142857142800000000000000,0.03571428571428571200000000000000,0.007142857142857138300000000000000,0,0.01499999999999999900000000000000,0,0.01142857142857142700000000000000,0.02999999999999999900000000000000,0.02999999999999999900000000000000,-0.01000000000000000200000000000000,-0.0235714285714285700000000000000,0.02857142857142856700000000000000,0.01642857142857142400000000000000,-0.01785714285714285600000000000000,-0.02428571428571428500000000000000,0.02999999999999999900000000000000,-0.02785714285714285800000000000000,-0.002857142857142856700000000000000,0.03571428571428571200000000000000,-0.01214285714285714300000000000000,0.02999999999999999900000000000000,-0.01499999999999999900000000000000,0.01428571428571428400000000000000,-0.0171428571428571400000000000000,0.008571428571428570100000000000000,-0.01785714285714285600000000000000,-0.001428571428571431800000000000000,-0.0321428571428571400000000000000,0.001428571428571431800000000000000,0.03285714285714284900000000000000,-0.01285714285714285500000000000000,0.01499999999999999900000000000000,-0.03142857142857143100000000000000,0.03357142857142857200000000000000,0.01642857142857142400000000000000,0.01571428571428570800000000000000,0.01785714285714285600000000000000,0.03500000000000000300000000000000,-0.02285714285714285700000000000000,0.005714285714285713400000000000000,-0.02714285714285714200000000000000,-0.02928571428571428300000000000000,-0.007142857142857141800000000000000,-0.03499999999999999600000000000000,-0.01142857142857142700000000000000,-0.001428571428571431800000000000000,0.02857142857142856700000000000000,-0.008571428571428570100000000000000,-0.01928571428571428500000000000000,-0.0342857142857142800000000000000,0,0.006428571428571429300000000000000,0.01642857142857142400000000000000,0.02142857142857142900000000000000,-0.01642857142857142800000000000000,0.0171428571428571400000000000000,0.01214285714285714300000000000000,0.0257142857142857100000000000000,-0.0342857142857142800000000000000,-0.01000000000000000200000000000000,0.01857142857142857200000000000000,0,0.002142857142857147700000000000000,0.03285714285714284900000000000000,-0.01499999999999999900000000000000,-0.008571428571428570100000000000000,-0.01142857142857142700000000000000,-0.02999999999999999900000000000000,0.03142857142857141700000000000000,-0.002857142857142856700000000000000,0.003571428571428572600000000000000,-0.01357142857142857100000000000000,0.02142857142857142900000000000000,0.02214285714285714500000000000000,0,-0.00500000000000000100000000000000,0.03142857142857141700000000000000,0.01214285714285714300000000000000,-0.004285714285714288500000000000000,0.01928571428571428800000000000000,0.03357142857142857200000000000000,0.02642857142857142600000000000000,-0.02642857142857142600000000000000,-0.01071428571428571400000000000000,-0.006428571428571429300000000000000,-0.03499999999999999600000000000000,0.008571428571428570100000000000000,-0.0007142857142857159100000000000000,0.01285714285714285900000000000000,0.00928571428571428600000000000000,-0.0342857142857142800000000000000,-0.02214285714285714100000000000000,-0.02071428571428571300000000000000,-0.01285714285714285500000000000000,0.01428571428571428400000000000000,-0.0171428571428571400000000000000,-0.01785714285714285600000000000000,0.01928571428571428800000000000000,0.03071428571428572200000000000000,0.01642857142857142400000000000000,-0.01214285714285714300000000000000,-0.01357142857142857100000000000000,-0.02857142857142857100000000000000,